#include "tensor.h"



const float conv0_activation_99per = 2.8690316677093506;
const float conv1_activation_99per = 5.472453594207764;
const float conv2_activation_99per = 9.902957916259766;


const float conv0_kernel_data[] = {
    1.5657663 ,  0.88373774, -1.2657819 , -0.68050164,  1.3737351 ,
    -1.0296128 , -1.3210745 ,  0.36918926,  0.76399225,  1.5246062 ,
    -0.77700794,  1.9321772 , -0.89375335, -0.785154  ,  0.58246917,
     0.5354092
};

const struct float_4tensor conv0_kernel = {
    .data=(float*) conv0_kernel_data,
    .s0=2, // rows
    .s1=2, // cols
    .s2=1, // input channels
    .s3=4  // filters
};

const float conv0_bias_data[] = {
    -7.0469618e-02,  2.3160256e-01,  6.1115247e-01, -1.8146499e-04
};

const struct float_4tensor conv0_bias = {
    .data=(float*) conv0_bias_data,
    .s0=4, // channels
    .s1=1,
    .s2=1,
    .s3=1 
};

const float conv1_kernel_data[] = {
    -0.38453794,  0.05435186,  0.8972884 ,  1.1167041 , -0.88037765,
    -0.14216791, -0.31838736, -0.18603794, -0.69075334, -0.05925927,
     0.31900758, -0.9056507 , -0.01208382, -0.1765111 , -0.05670944,
    -1.2651355 , -0.52212024,  0.7556968 ,  1.0041205 , -1.8496346 ,
     0.15268934, -0.52240324, -0.29840678,  0.16253911, -1.0066972 ,
     0.20472416, -0.47876114,  0.44748515, -0.04362892, -0.5369094 ,
     0.19090758, -0.01044534,  0.33985326,  0.6195709 , -0.7791934 ,
     0.3898162 , -0.1306908 ,  0.6562435 , -0.21304835,  0.23536953,
    -0.7719504 ,  0.615908  , -0.3343056 , -0.92461336,  0.12271237,
     0.31744513, -0.05429998, -0.2625649 , -0.6145362 ,  1.7664706 ,
    -1.483922  ,  0.09036267, -1.2719004 , -3.9516604 , -0.03646959,
     0.43773738, -0.22260271,  0.3620843 ,  0.15982996,  1.2414918 ,
    -0.09637886,  0.4316639 , -0.01243868,  0.59861416, -0.7213141 ,
    -0.4950786 ,  0.8030446 ,  0.551769  , -1.672281  ,  0.73096955,
    -0.01927662,  0.17621465,  0.06060959,  0.6355363 , -0.35516945,
    -0.3015186 ,  0.9443514 , -1.5885178 , -0.06786713,  0.75168866,
     0.6590604 ,  0.4469841 , -1.032565  , -0.99684054,  0.16301885,
     0.11313816, -0.33403736, -1.1488636 ,  0.75433254,  0.16536959,
     0.7813634 , -0.12418914, -0.12869874,  0.9721976 , -0.15331422,
    -0.14479066,  1.1864032 , -1.2001755 , -0.06132109,  0.18818593,
     0.6352035 ,  0.06787677, -0.29406926,  0.3990404 ,  0.09823716,
     0.8091569 , -0.8574584 , -0.3354213 ,  0.1442201 , -0.53642607,
     0.12231916,  0.85306495,  1.0305549 ,  0.2923859 , -0.00897434,
    -0.66837484, -0.30625802, -0.44576058,  0.02641969,  0.13760349,
     0.5673689 ,  0.19811697,  1.5509304 ,  0.3134002 ,  0.67041415,
     0.14354031, -0.3277139 ,  0.19316387
};

const struct float_4tensor conv1_kernel = {
    .data=(float*) conv1_kernel_data,
    .s0=2, // rows
    .s1=2, // cols
    .s2=4, // input channels
    .s3=8  // filters
};

const float conv1_bias_data[] = {
    -0.494446  , -0.81474215, -1.2969245 , -0.284321  ,  0.70799196,
    -0.37644216, -0.00632669,  0.23209035
};

const struct float_4tensor conv1_bias = {
    .data=(float*) conv1_bias_data,
    .s0=8, // channels
    .s1=1,
    .s2=1,
    .s3=1 
};

const float conv2_kernel_data[] = {
    -7.50406444e-01, -6.08809233e-01, -1.37001304e-02, -7.62198344e-02,
    -2.20174029e-01, -2.35099375e-01,  4.33685362e-01,  3.56290579e-01,
    -4.22912538e-01,  3.13204348e-01, -5.53249598e-01, -5.06860673e-01,
    -8.15393806e-01,  4.71447647e-01,  7.83890709e-02, -1.04010373e-01,
     1.83455095e-01, -2.89327562e-01, -1.48008692e+00, -3.94754440e-01,
    -7.65772238e-02,  3.07338327e-01, -8.42322290e-01, -1.24242648e-01,
    -3.55895251e-01,  8.48036706e-01, -1.10839725e-01, -8.75744998e-01,
     3.86121154e-01, -1.33524671e-01, -2.53533006e-01, -8.45620483e-02,
     8.37163627e-01, -4.88420688e-02,  4.35081776e-03,  6.51056886e-01,
    -1.26714528e-01,  3.23526442e-01, -2.67000496e-01,  4.45254028e-01,
    -7.63306916e-01,  1.00886476e+00,  5.55875182e-01,  1.23786211e-01,
     3.96057874e-01,  8.03183675e-01,  4.22708206e-02, -1.57723784e-01,
     7.64454842e-01, -2.90707424e-02, -3.73812504e-02,  3.69735599e-01,
    -2.40348741e-01, -4.24881846e-01,  2.20177159e-01,  1.08781397e-01,
    -2.99323589e-01,  3.54249388e-01,  1.86377153e-01, -2.29962483e-01,
    -2.09641248e-01,  3.83651853e-01,  1.12712152e-01,  1.22471720e-01,
     7.78118432e-01, -2.11348720e-02,  4.41437662e-01, -7.42781878e-01,
    -1.67076901e-01, -4.09358561e-01, -1.18521464e+00,  3.61136645e-01,
     4.86180395e-01, -8.39508235e-01,  4.04312789e-01,  4.99747515e-01,
     2.39729509e-01, -1.31951010e+00, -4.14317489e-01,  4.60435420e-01,
    -1.76878944e-01, -4.28419799e-01, -1.39770702e-01, -4.24665689e-01,
    -3.30657274e-01,  1.69946834e-01, -4.01419729e-01, -1.64831489e-01,
     4.87169266e-01, -4.85536493e-02,  5.17089888e-02,  6.72868788e-01,
     8.14030051e-01,  2.88486302e-01,  5.76792240e-01, -1.58737034e-01,
    -7.38512278e-02, -1.45870045e-01,  2.74982676e-02, -7.58411437e-02,
    -1.01732612e-01, -2.27550715e-01,  1.22895483e-02, -5.17101325e-02,
     8.67940951e-03, -1.92074239e-01,  1.74581364e-01, -6.37346506e-03,
    -7.72627667e-02,  2.13311225e-01,  5.93944499e-03, -2.64214668e-02,
    -1.83416650e-01, -4.50570524e-01, -3.83904904e-01,  4.81707960e-01,
    -1.16200179e-01,  1.98972210e-01,  1.02864943e-01,  2.84071445e-01,
    -2.69638211e-01, -8.48616719e-01,  2.13673920e-03,  1.76233172e-01,
    -7.28752553e-01, -8.44449401e-01, -2.45421037e-01, -1.51191443e-01,
    -3.27133000e-01,  1.57029957e-01, -1.45457402e-01,  3.24575424e-01,
    -2.46812224e-01, -5.65291524e-01,  2.85553545e-01, -8.88034523e-01,
     2.04675153e-01, -1.53509700e+00, -3.30445856e-01,  6.60005093e-01,
    -4.25942123e-01,  1.70300514e-01,  9.09189403e-01, -5.39087355e-01,
    -2.15982329e-02,  1.41879320e-01,  1.01788223e+00,  4.23335910e-01,
    -1.40741646e-01, -8.19287956e-01, -2.11777240e-01, -6.50654614e-01,
    -1.16380922e-01, -1.23438823e+00, -1.44773230e-01,  6.52824283e-01,
    -1.18809707e-01, -1.13208376e-01, -3.92802477e-01,  2.11578518e-01,
     1.99671134e-01,  1.03320852e-01,  6.30877376e-01, -8.66817534e-01,
     4.00820114e-02,  8.79324675e-01, -1.22083135e-01,  5.17218292e-01,
    -1.13710082e+00, -3.71835619e-01,  5.27799368e-01,  3.69451106e-01,
    -4.01890367e-01,  1.65670197e-02, -1.84482813e-01,  4.06734973e-01,
     8.65161598e-01,  6.03241622e-01,  1.01730537e+00, -1.67664424e-01,
     1.44418970e-01,  3.07786345e-01,  7.63533294e-01,  2.28072926e-01,
     4.11564678e-01, -4.76843029e-01,  7.80817747e-01,  3.82341862e-01,
     5.29253185e-01,  8.16387832e-01,  2.58847505e-01, -4.69401717e-01,
     6.57269955e-02, -7.22527552e+00, -1.40132278e-01, -1.06945470e-01,
     1.45518081e-02,  5.14088392e-01, -9.51499462e-01,  2.49751255e-01,
    -5.66610157e-01, -1.69161800e-02, -2.85655946e-01,  1.36434987e-01,
     6.46797121e-01,  8.03122669e-02, -4.93894488e-01,  3.00728887e-01,
    -2.16112018e-01,  5.69305122e-02, -2.31741935e-01,  2.46488258e-01,
    -1.21268936e-01,  6.73985422e-01,  1.15977541e-01,  5.49017563e-02,
     4.17561382e-01, -6.46120608e-01,  2.66641498e-01,  2.19726712e-01,
    -4.29916680e-02, -9.50678587e-02,  7.72743300e-02,  5.66107988e-01,
    -1.61440969e-02,  1.48022592e-01, -2.02829361e-01,  2.11118460e-01,
     1.15554154e-01, -8.36512595e-02,  1.90790612e-02,  2.03398213e-01,
     1.15681626e-01, -1.74367160e-01,  1.80382833e-01, -1.36629179e-01,
    -1.38882622e-01,  2.77481247e-02, -6.42273203e-02, -1.17266774e-02,
    -1.47924483e-01, -1.33029401e-01, -6.60682917e-01, -4.00778234e-01,
    -2.37286553e-01,  3.13618094e-01, -6.12574875e-01, -2.26237789e-01,
    -4.59499843e-02,  4.51997638e-01, -1.83267117e-01,  2.33514324e-01,
     4.51586783e-01, -3.24689388e-01,  3.08384478e-01,  2.19904020e-01,
    -3.74669492e-01, -6.52859926e-01, -2.94501573e-01, -9.74630833e-01,
    -3.19038071e-02,  2.40932971e-01, -6.90108240e-01, -9.76699412e-01,
    -1.50887251e-01,  2.46153921e-01, -6.82918966e-01,  2.98561424e-01,
    -5.12198865e-01, -6.91694319e-02,  5.48388779e-01,  1.17362404e+00,
    -1.02444291e+00,  4.05777186e-01, -8.64613593e-01,  4.80920523e-01,
    -4.09592874e-02, -1.37528658e-01, -1.17797267e+00, -3.43201637e-01,
     3.08941901e-01,  8.29613149e-01, -1.82183817e-01, -8.54252696e-01,
     1.24170929e-01, -5.63037470e-02, -9.68886465e-02, -6.81838632e-01,
     5.41782677e-01,  5.97234666e-01,  4.85993683e-01, -3.07808638e-01,
    -2.08340839e-01,  5.13601542e-01,  1.98714629e-01,  8.56849790e-01,
    -7.48006254e-02,  2.77598143e-01,  1.03066266e+00, -2.40343466e-01,
     3.65805864e-01,  2.17368588e-01,  3.85711879e-01, -1.77380785e-01,
    -2.40737349e-01,  4.13688086e-02,  3.66582543e-01, -6.26639187e-01,
    -2.64089197e-01, -4.36347462e-02, -1.01079367e-01, -2.05429360e-01,
     1.08494878e-01,  6.97405338e-02, -1.68695346e-01, -4.68542725e-01,
     1.72512621e-01, -5.03094792e-01,  3.20472777e-01,  3.28879714e-01,
     4.05672222e-01, -2.86191493e-01,  2.63366759e-01,  6.62891209e-01,
     5.61315082e-02,  2.50787020e-01,  6.88060105e-01,  8.05017769e-01,
    -9.47999537e-01,  2.07910128e-02,  4.27094191e-01, -3.67619336e-01,
    -6.96764708e-01,  3.66030574e-01, -1.94643006e-01, -7.64290631e-01,
     2.04363301e-01,  7.54419714e-02, -8.66820589e-02, -2.76183248e-01,
    -2.13009000e-01,  4.17567521e-01,  5.51774919e-01,  1.51816517e-01,
    -2.21283793e-01,  7.32239857e-02,  4.16215956e-01,  3.76881778e-01,
     7.16720745e-02,  5.22158325e-01,  6.28783703e-01, -9.64904487e-01,
     2.30028555e-01, -1.30539268e-01,  1.37126356e-01, -1.45521849e-01,
     1.09225810e-01,  1.22192264e-01,  1.66342363e-01,  1.89872772e-01,
    -1.21943891e-01,  2.69588130e-03, -1.24703459e-01, -1.71852499e-01,
     2.12750733e-02, -3.49266827e-02, -4.80260253e-02, -1.69616304e-02,
    -8.44205543e-02,  5.29226363e-01,  5.25010563e-02,  6.17545426e-01,
    -7.98403546e-02,  1.70301888e-02,  2.66315341e-01, -3.28849018e-01,
     2.89017975e-01,  2.32518151e-01, -2.49535143e-01, -2.26793978e-02,
    -4.03729081e-02,  2.29751870e-01,  2.53507137e-01, -7.28942752e-01,
     4.89063710e-02, -1.59504807e+00, -6.63718998e-01,  5.52551746e-01,
    -3.64335775e-01, -3.08132678e-01, -3.09874952e-01, -7.84148395e-01,
     5.70991576e-01, -2.84446198e-02, -9.19974864e-01,  5.74495941e-02,
    -2.64069170e-01, -1.94494978e-01,  8.75621557e-01, -3.62681031e-01,
     4.75920051e-01,  8.91627520e-02,  1.81116685e-01,  5.70854358e-03,
    -1.50748983e-01, -6.01808727e-01,  8.36729825e-01, -3.28781843e-01,
     3.21960777e-01, -9.58504498e-01,  1.01841438e+00,  2.46835411e-01,
    -2.80885518e-01, -8.80775154e-01, -7.34804034e-01,  3.78174812e-01,
     4.63601649e-01, -2.47448325e-01,  8.84408951e-01, -1.32268593e-01,
    -2.32374564e-01,  5.77895224e-01,  3.26390266e-01,  7.96822071e-01,
     7.49469161e-01, -1.39761358e-01,  1.11129618e+00,  7.69583404e-01,
     7.19977617e-01,  2.73017108e-01,  4.60011214e-01, -5.50023854e-01,
     5.27969420e-01,  3.25557254e-02, -1.65392071e-01,  5.09198725e-01,
    -2.11112648e-01, -9.45200145e-01,  5.52955151e-01, -3.15769792e-01,
    -3.45563948e-01, -1.09050602e-01, -3.67157757e-01, -5.97239494e-01,
     7.10238159e-01, -6.71368003e-01, -5.69736838e-01,  3.24116379e-01,
    -2.48063177e-01,  3.12205821e-01,  8.82658839e-01, -4.56949556e-03,
     3.82295288e-02,  4.35027063e-01,  2.62620002e-01,  7.14805126e-01,
    -3.23424727e-01, -3.15297991e-01,  2.53326207e-01,  3.44483495e-01,
     2.53448904e-01,  3.66433442e-01, -4.63979810e-01,  1.56026915e-01,
    -6.57666981e-01,  2.87509356e-02, -6.73534945e-02,  8.97533298e-01,
    -1.49220526e-01,  2.95028299e-01, -2.25994959e-01, -3.17378268e-02,
    -1.75852251e+00,  3.82758304e-02,  2.17936948e-01,  4.55420986e-02,
    -1.18821837e-01,  1.59925595e-01, -2.52620913e-02, -6.67944670e-01,
    -2.55719632e-01,  5.26643954e-02,  1.49106294e-01,  3.61923575e-02,
    -1.33511657e-02, -2.13239402e-01,  5.24961352e-02, -5.17023765e-02,
    -1.02456450e-01, -2.23919973e-01, -1.69235431e-02, -1.64073154e-01,
     2.08256900e-01,  2.14634821e-01,  6.10802472e-02,  1.69418454e-01,
     2.33937413e-01, -1.41490793e+00,  5.09448946e-01, -1.99739769e-01,
    -4.04951572e-01, -6.31603718e-01,  5.88604331e-01,  6.29043281e-01,
     1.36625007e-01, -9.37737226e-02,  9.48119611e-02, -3.15754771e-01,
    -1.85905583e-02,  4.42335099e-01,  2.11242273e-01,  4.81024653e-01
};

const struct float_4tensor conv2_kernel = {
    .data=(float*) conv2_kernel_data,
    .s0=2, // rows
    .s1=2, // cols
    .s2=8, // input channels
    .s3=16  // filters
};

const float conv2_bias_data[] = {
    -0.5929244 , -0.06253637, -1.3788568 , -0.5513649 , -0.12645179,
     0.11914802,  0.5308174 , -1.128547  , -1.060538  , -0.01111212,
     0.11267054, -1.0513431 , -1.0949887 , -1.5837337 ,  1.347817  ,
    -0.52220374
};

const struct float_4tensor conv2_bias = {
    .data=(float*) conv2_bias_data,
    .s0=16, // channels
    .s1=1,
    .s2=1,
    .s3=1 
};

const float dense_kernel_data[] = {
    -0.23595893,  1.3457971 , -1.4591184 ,  0.5024037 , -0.17692198,
    -0.31868544, -0.5232818 ,  1.5393157 , -0.5431922 , -1.4883909 ,
     0.22950068,  0.46578985,  0.23570055,  0.24545413,  0.02416257,
    -0.32253215, -1.3606721 , -0.6021401 ,  0.68134624, -0.11478873,
    -0.21806166,  0.958692  ,  0.10174292, -2.2123778 , -0.8651206 ,
     0.6062825 ,  1.1787914 ,  0.10096233, -0.00568515, -0.6983569 ,
    -0.74529207,  0.06509897, -1.37698   , -1.603992  , -0.28838938,
     0.7628593 ,  0.37098792, -0.3241072 ,  0.7965978 , -0.35675648,
     1.5514305 ,  0.74749553,  1.0886854 , -0.83123106, -0.35532176,
     0.40495795, -0.5834828 , -0.29355076, -0.86489147, -0.26519147,
    -0.04146365, -0.06166697,  0.22753347,  0.7122818 ,  0.47409746,
    -0.04141825,  0.05274426, -0.5523848 , -0.21441081, -0.5784277 ,
    -0.48262364, -0.09222348,  0.84308976, -0.7830326 ,  0.12293603,
    -0.33717275, -0.39585042, -0.78724706,  0.2812146 ,  0.49869278,
    -0.43366507,  0.01430488,  0.29012668, -1.3646921 , -0.7777846 ,
    -0.2818889 ,  1.7944953 , -0.27752927, -0.28677613,  1.6972    ,
     0.07892645,  0.4097076 ,  0.7211294 , -0.23882079,  0.35344112,
    -0.65927017, -1.2244782 , -0.51174366, -0.2903181 ,  0.52375704,
    -0.25254193,  1.3268349 , -0.30522707,  0.21975037,  0.8289998 ,
    -0.67950445, -0.23581272,  0.40362346,  1.0026891 ,  0.6987373 ,
    -0.2586461 , -1.1386199 , -1.0365869 ,  0.29026884,  0.11464949,
     1.1148542 ,  0.17609502,  1.0015639 ,  0.03167211, -1.188068  ,
     0.03467177, -0.6699902 , -0.57439363,  1.4240192 , -0.9214516 ,
     0.7715177 , -0.29822117, -0.96688163,  0.8480874 ,  0.5428919 ,
    -0.49835873, -1.1792165 , -0.73506147,  0.27009362, -0.60091996,
     1.8678194 , -0.25564095,  0.76231986,  0.13766788, -0.6224617 ,
     0.39321524,  0.30670854, -0.30763656,  0.5696813 , -0.19017883,
     0.22013511,  0.7746762 , -0.49410966,  0.0711531 , -0.93328875,
    -0.18799692, -0.84163964,  0.19209674, -1.6567584 ,  1.0755023 ,
    -1.1652299 , -0.6290921 , -0.85574687,  0.00347976,  0.244179  ,
    -0.12137452,  0.5329087 , -0.02692156, -1.4923747 , -1.0643898 ,
     0.13843083, -0.32636955,  0.35288548,  0.44805157,  0.42539415
};

const struct float_4tensor dense_kernel = {
    .data=(float*) dense_kernel_data,
    .s0=10, // input channels
    .s1=16, // units
    .s2=1,
    .s3=1
};

const float dense_bias_data[] = {
    -0.26074752,  2.2946246 , -1.0875939 ,  0.9027235 , -0.84845984,
    -0.17025599, -0.98235565,  1.2335855 , -2.4111845 ,  0.94698876
};

const struct float_4tensor dense_bias = {
    .data=(float*) dense_bias_data,
    .s0=10, // channels
    .s1=1,
    .s2=1,
    .s3=1 
};
